{"layers":[{"0":{},"1":{},"2":{},"3":{}},{"0":{"bias":0.10141103371109966,"weights":{"0":0.1476868320440759,"1":0.09160585033649182,"2":-0.10635575115555743,"3":0.036604211965814926}},"1":{"bias":0.1986855095136809,"weights":{"0":0.1839298306377894,"1":0.012529414430645064,"2":0.07941001672042047,"3":0.12530500615145163}},"2":{"bias":0.046740800969037266,"weights":{"0":0.052650180009750414,"1":0.15158462902231318,"2":-0.018076566875478317,"3":-0.005419501417882888}}},{"0":{"bias":-0.18651929070787895,"weights":{"0":0.15548351248844172,"1":-0.005159765944456052,"2":-0.07469638429854558}},"1":{"bias":-0.004645964173956324,"weights":{"0":0.011177810132819488,"1":0.18467279776845225,"2":-0.1383704433274228}},"2":{"bias":-0.13354018676615942,"weights":{"0":-0.0999451315818095,"1":-0.02537082893831394,"2":0.10677306793886226}},"3":{"bias":-0.1220100089031348,"weights":{"0":0.025691470856108983,"1":0.04359989335101028,"2":-0.12670871496604957}},"4":{"bias":0.10946081831896554,"weights":{"0":-0.1272465027821527,"1":-0.10180081047787484,"2":-0.15767290908773834}},"5":{"bias":0.10346637501269734,"weights":{"0":0.08578743405466688,"1":0.12173897448766119,"2":0.0988357891903685}},"6":{"bias":0.16028652657776715,"weights":{"0":-0.12454522826972259,"1":-0.19082686803525092,"2":-0.026562435869890072}},"7":{"bias":0.12251269019311034,"weights":{"0":-0.07275510525067458,"1":-0.029015470295042173,"2":0.17258406654262898}},"8":{"bias":0.137787576534881,"weights":{"0":0.13805469184736624,"1":-0.009901914364104675,"2":-0.09618404499944343}},"9":{"bias":0.09644705385284758,"weights":{"0":0.028905836441409954,"1":-0.06524099494059535,"2":-0.01692851403515938}},"10":{"bias":-0.11703445004551734,"weights":{"0":-0.0024533927468498307,"1":-0.19850797861190364,"2":0.025830665979526574}},"11":{"bias":0.0006626631981402897,"weights":{"0":0.06787706137347777,"1":-0.004533368929580117,"2":0.13923821044205048}},"12":{"bias":0.1027224818657021,"weights":{"0":-0.044647168292762274,"1":0.09011122345213146,"2":0.16367223587251128}},"13":{"bias":0.1336269830037221,"weights":{"0":-0.041931590359326865,"1":-0.035204360717206284,"2":0.017164539182164512}},"14":{"bias":-0.09239405550837461,"weights":{"0":-0.03646834909094715,"1":-0.08247711893480539,"2":0.04813248039410034}}}],"outputLookup":true,"inputLookup":true}